
net {
  name = unnamedBN;
  software = "aGrUM 0.20.2";
  node_size = (50 50);
}

node sepal_length {
   states = ("(-0.0054, 0.23]" "(0.23, 0.39]" );
   label = "sepal_length";
   ID = "sepal_length";
}

node sepal_width {
   states = ("(0.32, 0.58]" "(0.58, 0.75]" "(0.75, 0.83]" );
   label = "sepal_width";
   ID = "sepal_width";
}

node petal_length {
   states = ("(-0.0084, 0.11]" "(0.11, 0.33]" "(0.33, 0.35]" );
   label = "petal_length";
   ID = "petal_length";
}

node petal_width {
   states = ("(-0.0075, 0.042]" "(0.042, 0.29]" );
   label = "petal_width";
   ID = "petal_width";
}

node Result {
   states = (Positive );
   label = "Result";
   ID = "Result";
}

potential ( sepal_length | sepal_width   ) {
   data = 
   ((   0.638462   0.361538)   % sepal_width="(0.32, 0.58]"   
   (   0.999055   0.00094518)   % sepal_width="(0.58, 0.75]"   
   (   0.990385   0.00961538));   % sepal_width="(0.75, 0.83]"   
}

potential (sepal_width) {
   data = (  0.35872 0.583885 0.0573951);
}

potential ( petal_length | sepal_width   ) {
   data = 
   ((   0.997949   0.00102564   0.00102564)   % sepal_width="(0.32, 0.58]"   
   (   0.255829   0.73787   0.0063012)   % sepal_width="(0.58, 0.75]"   
   (   0.987179   0.00641026   0.00641026));   % sepal_width="(0.75, 0.83]"   
}

potential ( petal_width | petal_length   ) {
   data = 
   ((   0.999022   0.000978474)   % petal_length="(-0.0084, 0.11]"   
   (   0.515345   0.484655)   % petal_length="(0.11, 0.33]"   
   (   0.875   0.125));   % petal_length="(0.33, 0.35]"   
}

potential ( Result | petal_length   petal_width   ) {
   data = 
   (((   1)   % petal_width="(-0.0075, 0.042]"   petal_length="(-0.0084, 0.11]"   
   (   1))   % petal_width="(0.042, 0.29]"   petal_length="(-0.0084, 0.11]"   
   ((   1)   % petal_width="(-0.0075, 0.042]"   petal_length="(0.11, 0.33]"   
   (   1))   % petal_width="(0.042, 0.29]"   petal_length="(0.11, 0.33]"   
   ((   1)   % petal_width="(-0.0075, 0.042]"   petal_length="(0.33, 0.35]"   
   (   1)));   % petal_width="(0.042, 0.29]"   petal_length="(0.33, 0.35]"   
}


