
net {
  name = unnamedBN;
  software = "aGrUM 0.20.2";
  node_size = (50 50);
}

node sepal_length {
   states = ("(-0.0051, 0.25]" "(0.25, 0.42]" );
   label = "sepal_length";
   ID = "sepal_length";
}

node sepal_width {
   states = ("(0.19999999999999998, 0.46]" "(0.46, 0.62]" "(0.62, 0.71]" );
   label = "sepal_width";
   ID = "sepal_width";
}

node petal_length {
   states = ("(-0.0085, 0.089]" "(0.089, 0.31]" "(0.31, 0.33]" );
   label = "petal_length";
   ID = "petal_length";
}

node petal_width {
   states = ("(-0.01, 0.25]" );
   label = "petal_width";
   ID = "petal_width";
}

node Result {
   states = (Positive );
   label = "Result";
   ID = "Result";
}

potential ( sepal_length | sepal_width   ) {
   data = 
   ((   0.638462   0.361538)   % sepal_width="(0.19999999999999998, 0.46]"   
   (   0.999055   0.00094518)   % sepal_width="(0.46, 0.62]"   
   (   0.990385   0.00961538));   % sepal_width="(0.62, 0.71]"   
}

potential ( sepal_width | petal_length   ) {
   data = 
   ((   0.649967   0.247161   0.102872)   % petal_length="(-0.0085, 0.089]"   
   (   0.00082713   0.998346   0.00082713)   % petal_length="(0.089, 0.31]"   
   (   0.0833333   0.833333   0.0833333));   % petal_length="(0.31, 0.33]"   
}

potential (petal_length) {
   data = (  0.550773 0.444812 0.00441501);
}

potential ( petal_width | petal_length   ) {
   data = 
   ((   1)   % petal_length="(-0.0085, 0.089]"   
   (   1)   % petal_length="(0.089, 0.31]"   
   (   1));   % petal_length="(0.31, 0.33]"   
}

potential ( Result | petal_length   ) {
   data = 
   ((   1)   % petal_length="(-0.0085, 0.089]"   
   (   1)   % petal_length="(0.089, 0.31]"   
   (   1));   % petal_length="(0.31, 0.33]"   
}


