
net {
  name = unnamedBN;
  software = "aGrUM 0.20.2";
  node_size = (50 50);
}

node sepal_length {
   states = ("(-0.01, 0.15]" "(0.15, 0.25]" );
   label = "sepal_length";
   ID = "sepal_length";
}

node sepal_width {
   states = ("(0.16, 0.42]" "(0.42, 0.58]" "(0.58, 0.66]" );
   label = "sepal_width";
   ID = "sepal_width";
}

node petal_length {
   states = ("(-0.0088, 0.018]" "(0.018, 0.25]" "(0.25, 0.26]" );
   label = "petal_length";
   ID = "petal_length";
}

node petal_width {
   states = ("(-0.01, 0.25]" );
   label = "petal_width";
   ID = "petal_width";
}

node Result {
   states = (Positive );
   label = "Result";
   ID = "Result";
}

potential ( sepal_length | sepal_width   ) {
   data = 
   ((   0.638462   0.361538)   % sepal_width="(0.16, 0.42]"   
   (   0.999055   0.00094518)   % sepal_width="(0.42, 0.58]"   
   (   0.990385   0.00961538));   % sepal_width="(0.58, 0.66]"   
}

potential ( sepal_width | petal_length   ) {
   data = 
   ((   0.705072   0.183333   0.111594)   % petal_length="(-0.0088, 0.018]"   
   (   0.000754148   0.998492   0.000754148)   % petal_length="(0.018, 0.25]"   
   (   0.0833333   0.833333   0.0833333));   % petal_length="(0.25, 0.26]"   
}

potential (petal_length) {
   data = (  0.507726 0.487859 0.00441501);
}

potential ( petal_width | petal_length   sepal_length   ) {
   data = 
   (((   1)   % sepal_length="(-0.01, 0.15]"   petal_length="(-0.0088, 0.018]"   
   (   1))   % sepal_length="(0.15, 0.25]"   petal_length="(-0.0088, 0.018]"   
   ((   1)   % sepal_length="(-0.01, 0.15]"   petal_length="(0.018, 0.25]"   
   (   1))   % sepal_length="(0.15, 0.25]"   petal_length="(0.018, 0.25]"   
   ((   1)   % sepal_length="(-0.01, 0.15]"   petal_length="(0.25, 0.26]"   
   (   1)));   % sepal_length="(0.15, 0.25]"   petal_length="(0.25, 0.26]"   
}

potential ( Result | petal_length   sepal_length   ) {
   data = 
   (((   1)   % sepal_length="(-0.01, 0.15]"   petal_length="(-0.0088, 0.018]"   
   (   1))   % sepal_length="(0.15, 0.25]"   petal_length="(-0.0088, 0.018]"   
   ((   1)   % sepal_length="(-0.01, 0.15]"   petal_length="(0.018, 0.25]"   
   (   1))   % sepal_length="(0.15, 0.25]"   petal_length="(0.018, 0.25]"   
   ((   1)   % sepal_length="(-0.01, 0.15]"   petal_length="(0.25, 0.26]"   
   (   1)));   % sepal_length="(0.15, 0.25]"   petal_length="(0.25, 0.26]"   
}


