
net {
  name = unnamedBN;
  software = "aGrUM 0.20.2";
  node_size = (50 50);
}

node sepal_length {
   states = ("(-0.0044, 0.28]" "(0.28, 0.47]" );
   label = "sepal_length";
   ID = "sepal_length";
}

node sepal_width {
   states = ("(0.37, 0.62]" "(0.62, 0.79]" "(0.79, 0.87]" );
   label = "sepal_width";
   ID = "sepal_width";
}

node petal_length {
   states = ("(-0.0085, 0.071]" "(0.071, 0.3]" "(0.3, 0.31]" );
   label = "petal_length";
   ID = "petal_length";
}

node petal_width {
   states = ("(-0.0075, 0.042]" "(0.042, 0.29]" );
   label = "petal_width";
   ID = "petal_width";
}

node Result {
   states = (Positive );
   label = "Result";
   ID = "Result";
}

potential ( sepal_length | sepal_width   ) {
   data = 
   ((   0.638462   0.361538)   % sepal_width="(0.37, 0.62]"   
   (   0.999055   0.00094518)   % sepal_width="(0.62, 0.79]"   
   (   0.990385   0.00961538));   % sepal_width="(0.79, 0.87]"   
}

potential (sepal_width) {
   data = (  0.35872 0.583885 0.0573951);
}

potential ( petal_length | sepal_width   ) {
   data = 
   ((   0.997949   0.00102564   0.00102564)   % sepal_width="(0.37, 0.62]"   
   (   0.216131   0.777568   0.0063012)   % sepal_width="(0.62, 0.79]"   
   (   0.987179   0.00641026   0.00641026));   % sepal_width="(0.79, 0.87]"   
}

potential ( petal_width | petal_length   ) {
   data = 
   ((   0.99898   0.00102041)   % petal_length="(-0.0085, 0.071]"   
   (   0.540049   0.459951)   % petal_length="(0.071, 0.3]"   
   (   0.875   0.125));   % petal_length="(0.3, 0.31]"   
}

potential ( Result | petal_length   petal_width   ) {
   data = 
   (((   1)   % petal_width="(-0.0075, 0.042]"   petal_length="(-0.0085, 0.071]"   
   (   1))   % petal_width="(0.042, 0.29]"   petal_length="(-0.0085, 0.071]"   
   ((   1)   % petal_width="(-0.0075, 0.042]"   petal_length="(0.071, 0.3]"   
   (   1))   % petal_width="(0.042, 0.29]"   petal_length="(0.071, 0.3]"   
   ((   1)   % petal_width="(-0.0075, 0.042]"   petal_length="(0.3, 0.31]"   
   (   1)));   % petal_width="(0.042, 0.29]"   petal_length="(0.3, 0.31]"   
}


