
net {
  name = unnamedBN;
  software = "aGrUM 0.20.2";
  node_size = (50 50);
}

node sepal_length {
   states = ("(0.25, 0.55]" "(0.55, 0.75]" );
   label = "sepal_length";
   ID = "sepal_length";
}

node sepal_width {
   states = ("(0.07400000000000001, 0.33]" "(0.33, 0.5]" "(0.5, 0.58]" );
   label = "sepal_width";
   ID = "sepal_width";
}

node petal_length {
   states = ("(0.27999999999999997, 0.54]" "(0.54, 0.75]" "(0.75, 0.77]" );
   label = "petal_length";
   ID = "petal_length";
}

node petal_width {
   states = ("(0.24, 0.5]" "(0.5, 0.74]" );
   label = "petal_width";
   ID = "petal_width";
}

node Result {
   states = (Negative );
   label = "Result";
   ID = "Result";
}

potential ( sepal_length | sepal_width   ) {
   data = 
   ((   0.638462   0.361538)   % sepal_width="(0.07400000000000001, 0.33]"   
   (   0.999055   0.00094518)   % sepal_width="(0.33, 0.5]"   
   (   0.990385   0.00961538));   % sepal_width="(0.5, 0.58]"   
}

potential (sepal_width) {
   data = (  0.35872 0.583885 0.0573951);
}

potential ( petal_length | sepal_width   ) {
   data = 
   ((   0.997949   0.00102564   0.00102564)   % sepal_width="(0.07400000000000001, 0.33]"   
   (   0.363579   0.63012   0.0063012)   % sepal_width="(0.33, 0.5]"   
   (   0.987179   0.00641026   0.00641026));   % sepal_width="(0.5, 0.58]"   
}

potential ( petal_width | petal_length   ) {
   data = 
   ((   0.99912   0.000880282)   % petal_length="(0.27999999999999997, 0.54]"   
   (   0.702096   0.297904)   % petal_length="(0.54, 0.75]"   
   (   0.875   0.125));   % petal_length="(0.75, 0.77]"   
}

potential ( Result | petal_length   sepal_length   ) {
   data = 
   (((   1)   % sepal_length="(0.25, 0.55]"   petal_length="(0.27999999999999997, 0.54]"   
   (   1))   % sepal_length="(0.55, 0.75]"   petal_length="(0.27999999999999997, 0.54]"   
   ((   1)   % sepal_length="(0.25, 0.55]"   petal_length="(0.54, 0.75]"   
   (   1))   % sepal_length="(0.55, 0.75]"   petal_length="(0.54, 0.75]"   
   ((   1)   % sepal_length="(0.25, 0.55]"   petal_length="(0.75, 0.77]"   
   (   1)));   % sepal_length="(0.55, 0.75]"   petal_length="(0.75, 0.77]"   
}


