
net {
  name = unnamedBN;
  software = "aGrUM 0.20.2";
  node_size = (50 50);
}

node sepal_length {
   states = ("(0.41, 0.71]" "(0.71, 0.92]" );
   label = "sepal_length";
   ID = "sepal_length";
}

node sepal_width {
   states = ("(0.19999999999999998, 0.46]" "(0.46, 0.62]" "(0.62, 0.71]" );
   label = "sepal_width";
   ID = "sepal_width";
}

node petal_length {
   states = ("(0.35, 0.61]" "(0.61, 0.82]" "(0.82, 0.84]" );
   label = "petal_length";
   ID = "petal_length";
}

node petal_width {
   states = ("(0.29, 0.54]" "(0.54, 0.79]" );
   label = "petal_width";
   ID = "petal_width";
}

node Result {
   states = (Negative );
   label = "Result";
   ID = "Result";
}

potential ( sepal_length | sepal_width   ) {
   data = 
   ((   0.638462   0.361538)   % sepal_width="(0.19999999999999998, 0.46]"   
   (   0.999055   0.00094518)   % sepal_width="(0.46, 0.62]"   
   (   0.990385   0.00961538));   % sepal_width="(0.62, 0.71]"   
}

potential (sepal_width) {
   data = (  0.35872 0.583885 0.0573951);
}

potential ( petal_length | sepal_width   ) {
   data = 
   ((   0.997949   0.00102564   0.00102564)   % sepal_width="(0.19999999999999998, 0.46]"   
   (   0.363579   0.63012   0.0063012)   % sepal_width="(0.46, 0.62]"   
   (   0.987179   0.00641026   0.00641026));   % sepal_width="(0.62, 0.71]"   
}

potential ( petal_width | petal_length   ) {
   data = 
   ((   0.99912   0.000880282)   % petal_length="(0.35, 0.61]"   
   (   0.702096   0.297904)   % petal_length="(0.61, 0.82]"   
   (   0.875   0.125));   % petal_length="(0.82, 0.84]"   
}

potential ( Result | petal_length   sepal_length   ) {
   data = 
   (((   1)   % sepal_length="(0.41, 0.71]"   petal_length="(0.35, 0.61]"   
   (   1))   % sepal_length="(0.71, 0.92]"   petal_length="(0.35, 0.61]"   
   ((   1)   % sepal_length="(0.41, 0.71]"   petal_length="(0.61, 0.82]"   
   (   1))   % sepal_length="(0.71, 0.92]"   petal_length="(0.61, 0.82]"   
   ((   1)   % sepal_length="(0.41, 0.71]"   petal_length="(0.82, 0.84]"   
   (   1)));   % sepal_length="(0.71, 0.92]"   petal_length="(0.82, 0.84]"   
}


