
net {
  name = unnamedBN;
  software = "aGrUM 0.20.2";
  node_size = (50 50);
}

node sepal_length {
   states = ("(0.27, 0.57]" "(0.57, 0.78]" );
   label = "sepal_length";
   ID = "sepal_length";
}

node sepal_width {
   states = ("(-0.009600000000000001, 0.083]" "(0.083, 0.28]" "(0.28, 0.33]" );
   label = "sepal_width";
   ID = "sepal_width";
}

node petal_length {
   states = ("(0.37, 0.62]" "(0.62, 0.84]" "(0.84, 0.86]" );
   label = "petal_length";
   ID = "petal_length";
}

node petal_width {
   states = ("(0.33, 0.58]" "(0.58, 0.83]" );
   label = "petal_width";
   ID = "petal_width";
}

node Result {
   states = (Negative );
   label = "Result";
   ID = "Result";
}

potential ( sepal_length | sepal_width   ) {
   data = 
   ((   0.584806   0.415194)   % sepal_width="(-0.009600000000000001, 0.083]"   
   (   0.999124   0.000875657)   % sepal_width="(0.083, 0.28]"   
   (   0.990385   0.00961538));   % sepal_width="(0.28, 0.33]"   
}

potential (sepal_width) {
   data = (  0.312362 0.630243 0.0573951);
}

potential ( petal_length | sepal_width   ) {
   data = 
   ((   0.997644   0.00117786   0.00117786)   % sepal_width="(-0.009600000000000001, 0.083]"   
   (   0.410391   0.583771   0.00583771)   % sepal_width="(0.083, 0.28]"   
   (   0.987179   0.00641026   0.00641026));   % sepal_width="(0.28, 0.33]"   
}

potential ( petal_width | petal_length   ) {
   data = 
   ((   0.99912   0.000880282)   % petal_length="(0.37, 0.62]"   
   (   0.702096   0.297904)   % petal_length="(0.62, 0.84]"   
   (   0.875   0.125));   % petal_length="(0.84, 0.86]"   
}

potential ( Result | petal_length   sepal_length   ) {
   data = 
   (((   1)   % sepal_length="(0.27, 0.57]"   petal_length="(0.37, 0.62]"   
   (   1))   % sepal_length="(0.57, 0.78]"   petal_length="(0.37, 0.62]"   
   ((   1)   % sepal_length="(0.27, 0.57]"   petal_length="(0.62, 0.84]"   
   (   1))   % sepal_length="(0.57, 0.78]"   petal_length="(0.62, 0.84]"   
   ((   1)   % sepal_length="(0.27, 0.57]"   petal_length="(0.84, 0.86]"   
   (   1)));   % sepal_length="(0.57, 0.78]"   petal_length="(0.84, 0.86]"   
}


