
net {
  name = unnamedBN;
  software = "aGrUM 0.20.2";
  node_size = (50 50);
}

node sepal_length {
   states = ("(0.22, 0.52]" "(0.52, 0.72]" );
   label = "sepal_length";
   ID = "sepal_length";
}

node sepal_width {
   states = ("(0.12000000000000001, 0.38]" "(0.38, 0.54]" "(0.54, 0.62]" );
   label = "sepal_width";
   ID = "sepal_width";
}

node petal_length {
   states = ("(0.37, 0.62]" "(0.62, 0.84]" "(0.84, 0.86]" );
   label = "petal_length";
   ID = "petal_length";
}

node petal_width {
   states = ("(0.33, 0.58]" "(0.58, 0.83]" );
   label = "petal_width";
   ID = "petal_width";
}

node Result {
   states = (Negative );
   label = "Result";
   ID = "Result";
}

potential ( sepal_length | sepal_width   ) {
   data = 
   ((   0.638462   0.361538)   % sepal_width="(0.12000000000000001, 0.38]"   
   (   0.999055   0.00094518)   % sepal_width="(0.38, 0.54]"   
   (   0.990385   0.00961538));   % sepal_width="(0.54, 0.62]"   
}

potential (sepal_width) {
   data = (  0.35872 0.583885 0.0573951);
}

potential ( petal_length | sepal_width   ) {
   data = 
   ((   0.997949   0.00102564   0.00102564)   % sepal_width="(0.12000000000000001, 0.38]"   
   (   0.363579   0.63012   0.0063012)   % sepal_width="(0.38, 0.54]"   
   (   0.987179   0.00641026   0.00641026));   % sepal_width="(0.54, 0.62]"   
}

potential ( petal_width | petal_length   ) {
   data = 
   ((   0.99912   0.000880282)   % petal_length="(0.37, 0.62]"   
   (   0.702096   0.297904)   % petal_length="(0.62, 0.84]"   
   (   0.875   0.125));   % petal_length="(0.84, 0.86]"   
}

potential ( Result | petal_length   sepal_length   ) {
   data = 
   (((   1)   % sepal_length="(0.22, 0.52]"   petal_length="(0.37, 0.62]"   
   (   1))   % sepal_length="(0.52, 0.72]"   petal_length="(0.37, 0.62]"   
   ((   1)   % sepal_length="(0.22, 0.52]"   petal_length="(0.62, 0.84]"   
   (   1))   % sepal_length="(0.52, 0.72]"   petal_length="(0.62, 0.84]"   
   ((   1)   % sepal_length="(0.22, 0.52]"   petal_length="(0.84, 0.86]"   
   (   1)));   % sepal_length="(0.52, 0.72]"   petal_length="(0.84, 0.86]"   
}


