
net {
  name = unnamedBN;
  software = "aGrUM 0.20.2";
  node_size = (50 50);
}

node sepal_length {
   states = ("(-0.0047, 0.26]" "(0.26, 0.44]" );
   label = "sepal_length";
   ID = "sepal_length";
}

node sepal_width {
   states = ("(-0.0095, 0.12]" "(0.12, 0.31]" "(0.31, 0.37]" );
   label = "sepal_width";
   ID = "sepal_width";
}

node petal_length {
   states = ("(0.15, 0.41]" "(0.41, 0.62]" "(0.62, 0.65]" );
   label = "petal_length";
   ID = "petal_length";
}

node petal_width {
   states = ("(0.12000000000000001, 0.38]" "(0.38, 0.62]" );
   label = "petal_width";
   ID = "petal_width";
}

node Result {
   states = (Negative Positive );
   label = "Result";
   ID = "Result";
}

potential ( sepal_length | sepal_width   ) {
   data = 
   ((   0.593426   0.406574)   % sepal_width="(-0.0095, 0.12]"   
   (   0.999115   0.000884956)   % sepal_width="(0.12, 0.31]"   
   (   0.990385   0.00961538));   % sepal_width="(0.31, 0.37]"   
}

potential (sepal_width) {
   data = (  0.318985 0.62362 0.0573951);
}

potential ( petal_length | sepal_width   ) {
   data = 
   ((   0.997693   0.0011534   0.0011534)   % sepal_width="(-0.0095, 0.12]"   
   (   0.40413   0.589971   0.00589971)   % sepal_width="(0.12, 0.31]"   
   (   0.987179   0.00641026   0.00641026));   % sepal_width="(0.31, 0.37]"   
}

potential ( petal_width | petal_length   ) {
   data = 
   ((   0.99912   0.000880282)   % petal_length="(0.15, 0.41]"   
   (   0.702096   0.297904)   % petal_length="(0.41, 0.62]"   
   (   0.875   0.125));   % petal_length="(0.62, 0.65]"   
}

potential ( Result | petal_length   sepal_length   ) {
   data = 
   (((   0.579911   0.420089)   % sepal_length="(-0.0047, 0.26]"   petal_length="(0.15, 0.41]"   
   (   0.997872   0.00212766))   % sepal_length="(0.26, 0.44]"   petal_length="(0.15, 0.41]"   
   ((   0.99925   0.000749625)   % sepal_length="(-0.0047, 0.26]"   petal_length="(0.41, 0.62]"   
   (   0.5   0.5))   % sepal_length="(0.26, 0.44]"   petal_length="(0.41, 0.62]"   
   ((   0.928571   0.0714286)   % sepal_length="(-0.0047, 0.26]"   petal_length="(0.62, 0.65]"   
   (   0.5   0.5)));   % sepal_length="(0.26, 0.44]"   petal_length="(0.62, 0.65]"   
}


