
net {
  name = unnamedBN;
  software = "aGrUM 0.20.2";
  node_size = (50 50);
}

node sepal_length {
   states = ("(0.41, 0.71]" "(0.71, 0.92]" );
   label = "sepal_length";
   ID = "sepal_length";
}

node sepal_width {
   states = ("(-0.0094, 0.21]" "(0.21, 0.38]" "(0.38, 0.46]" );
   label = "sepal_width";
   ID = "sepal_width";
}

node petal_length {
   states = ("(0.6, 0.86]" "(0.86, 0.97]" "(0.97, 0.99]" );
   label = "petal_length";
   ID = "petal_length";
}

node petal_width {
   states = ("(0.45, 0.71]" "(0.71, 0.95]" );
   label = "petal_width";
   ID = "petal_width";
}

node Result {
   states = (Negative );
   label = "Result";
   ID = "Result";
}

potential ( sepal_length | sepal_width   ) {
   data = 
   ((   0.631661   0.368339)   % sepal_width="(-0.0094, 0.21]"   
   (   0.999065   0.000934579)   % sepal_width="(0.21, 0.38]"   
   (   0.990385   0.00961538));   % sepal_width="(0.38, 0.46]"   
}

potential ( sepal_width | petal_length   ) {
   data = 
   ((   0.51427   0.4028   0.0829295)   % petal_length="(0.6, 0.86]"   
   (   0.00117786   0.997644   0.00117786)   % petal_length="(0.86, 0.97]"   
   (   0.0833333   0.833333   0.0833333));   % petal_length="(0.97, 0.99]"   
}

potential (petal_length) {
   data = (  0.683223 0.312362 0.00441501);
}

potential ( petal_width | petal_length   ) {
   data = 
   ((   0.999192   0.000807754)   % petal_length="(0.6, 0.86]"   
   (   0.64841   0.35159)   % petal_length="(0.86, 0.97]"   
   (   0.875   0.125));   % petal_length="(0.97, 0.99]"   
}

potential ( Result | sepal_width   petal_width   ) {
   data = 
   (((   1)   % petal_width="(0.45, 0.71]"   sepal_width="(-0.0094, 0.21]"   
   (   1))   % petal_width="(0.71, 0.95]"   sepal_width="(-0.0094, 0.21]"   
   ((   1)   % petal_width="(0.45, 0.71]"   sepal_width="(0.21, 0.38]"   
   (   1))   % petal_width="(0.71, 0.95]"   sepal_width="(0.21, 0.38]"   
   ((   1)   % petal_width="(0.45, 0.71]"   sepal_width="(0.38, 0.46]"   
   (   1)));   % petal_width="(0.71, 0.95]"   sepal_width="(0.38, 0.46]"   
}


