
net {
  name = unnamedBN;
  software = "aGrUM 0.20.2";
  node_size = (50 50);
}

node sepal_length {
   states = ("(0.36, 0.66]" "(0.66, 0.86]" );
   label = "sepal_length";
   ID = "sepal_length";
}

node sepal_width {
   states = ("(0.24, 0.5]" "(0.5, 0.67]" "(0.67, 0.75]" );
   label = "sepal_width";
   ID = "sepal_width";
}

node petal_length {
   states = ("(0.47, 0.73]" "(0.73, 0.94]" "(0.94, 0.97]" );
   label = "petal_length";
   ID = "petal_length";
}

node petal_width {
   states = ("(0.54, 0.79]" "(0.79, 0.99]" );
   label = "petal_width";
   ID = "petal_width";
}

node Result {
   states = (Negative );
   label = "Result";
   ID = "Result";
}

potential ( sepal_length | sepal_width   ) {
   data = 
   ((   0.638462   0.361538)   % sepal_width="(0.24, 0.5]"   
   (   0.999055   0.00094518)   % sepal_width="(0.5, 0.67]"   
   (   0.990385   0.00961538));   % sepal_width="(0.67, 0.75]"   
}

potential (sepal_width) {
   data = (  0.35872 0.583885 0.0573951);
}

potential ( petal_length | sepal_width   ) {
   data = 
   ((   0.997949   0.00102564   0.00102564)   % sepal_width="(0.24, 0.5]"   
   (   0.363579   0.63012   0.0063012)   % sepal_width="(0.5, 0.67]"   
   (   0.987179   0.00641026   0.00641026));   % sepal_width="(0.67, 0.75]"   
}

potential ( petal_width | petal_length   ) {
   data = 
   ((   0.99912   0.000880282)   % petal_length="(0.47, 0.73]"   
   (   0.747006   0.252994)   % petal_length="(0.73, 0.94]"   
   (   0.875   0.125));   % petal_length="(0.94, 0.97]"   
}

potential ( Result | petal_width   petal_length   ) {
   data = 
   (((   1)   % petal_length="(0.47, 0.73]"   petal_width="(0.54, 0.79]"   
   (   1)   % petal_length="(0.73, 0.94]"   petal_width="(0.54, 0.79]"   
   (   1))   % petal_length="(0.94, 0.97]"   petal_width="(0.54, 0.79]"   
   ((   1)   % petal_length="(0.47, 0.73]"   petal_width="(0.79, 0.99]"   
   (   1)   % petal_length="(0.73, 0.94]"   petal_width="(0.79, 0.99]"   
   (   1)));   % petal_length="(0.94, 0.97]"   petal_width="(0.79, 0.99]"   
}


